-0.137794,-0.729708,0.124382,-0.16416,-0.820943,-0.79039,-0.551684,0.609152,-0.476441,-0.0186574,-0.603199,-0.0331951,-0.0601566,-0.675205,-0.831904,0.116339,-0.108081,-0.16319,-0.47116,-0.579734,-0.181989,-0.960338,0.503152,-0.933998,-0.991758,-0.378588,-0.528401,0.746875,0.405888,-0.698403,-0.783098,0.543459,0.832309,-0.100576,-0.0618953,-0.184055,0.0339665,0.399467,0.0186253,-0.775064,-0.731164,-0.62623,0.174483,0.285137,0.226449,0.786188,-0.979238,-0.895957,0.0662174,-0.715253,0.829533,-0.736672,-0.688184,-0.735237,-0.832796,0.410002,-0.910861,0.0658475,0.471041,-0.0568283,-0.911771,0.833615,0.661914,0.824462,0.772076,0.378944,0.90843,-0.611053,-0.321716,0.550486,0.436691,-0.781172,-0.281494,0.31019,-0.403307,-0.598955,0.045954,0.765025,0.870712,-0.00234276,-0.345295,0.583721,-0.483851,-0.557502,-0.377406,-0.138927,0.261789,-0.537986,0.395574,-0.415237,-0.0267314,0.91261,0.0705333,0.196702,-0.997233,0.157811,0.448633,-0.0269837,0.0370016,-0.0716175,-0.813063,-0.224973,-0.631542,-0.640825,0.0780603,0.316694,-0.566964,0.913112,-0.136873,-0.229927,0.332759,0.523714,0.820305,0.699036,0.931211,-0.114317,-0.632607,-0.40667,-0.483855,-0.522952,-0.1085,0.26453,-0.525325,-0.594707,-0.607896,-0.128555,0.127971,0.424862,-0.71854,-0.721746,0.10672,-0.440135,-0.588243,0.390878,-0.10754,0.563957,0.195129,0.628574,-0.029476,-0.371776,-0.259001,-0.406484,-0.886483,0.650972,0.946139,0.700829,-0.777339,0.824873,0.66883,-0.362617,0.155643,0.686819,-0.449473,-0.0954095,0.358707,-0.770536,0.0174626,-0.0227315,0.760436,0.620396,-0.425538,-0.760741,0.34968,0.29776,-0.125539,0.813471,0.850065,-0.224849,-0.0804284,0.268574,0.0707414,-0.0882476,-0.652696,0.282854,0.0578302,0.658999,0.117468,-0.033011,0.665218,-0.0492529,-0.923324,-0.702654,-0.614022,0.44677,0.0180583,-0.106626,-0.776576,-0.610012,-0.569699,-0.353616,-0.558485,-0.959468,0.263175,0.977718,0.287266,0.887939,0.873587,-0.416273,-0.245437,0.807755,0.197124,-0.669965,0.243192,0.260542,-0.615659,0.278417,0.931201,-0.20217,-0.4577,0.0539788,0.728893,0.177752,-0.417099,0.542101,-0.470899,-0.700577,-0.976068,-0.532366,0.596258,-0.632841,-0.756823,0.480307,-0.698785,-0.285017,0.795636,-0.0174575,0.864405,0.156722,0.175882,-0.254279,-0.370091,-0.278327,-0.227699,-0.194662,-0.896011,-0.896101,-0.965867,0.969158,0.196594,0.572602,0.168922,0.37387,0.177622,-0.35209,0.137897,-0.528594,-0.584466,0.575789,0.801218,0.688495,0.115294,0.544006,-0.766565,0.313764,0.0160643,-0.674786,-0.907634,-0.963423,0.0537075,-0.791323,-0.388777,0.974392,-0.55687,-0.090916,-0.959857,-0.358515,0.814994,-0.287449,-0.553622,-0.904955,-0.59394,0.629236,-0.203478,0.444939,-0.822391,-0.47595,0.857134,-0.463421,-0.976093,0.411495,-0.600514,-0.557729,0.0675582,-0.995568,-0.43367,0.664344,-0.488111,-0.72159,-0.0345895,0.0647053
