0.0270711,-2.32491,-1.18662,0.14627,1.35454,-2.25658,1.69807,0.535625,-0.815568,4.00009,4.18147,2.86017,-2.07732,-0.0435742,-1.07356,0.0713117,-0.104597,1.59911,0.0481566,-3.61048,-4.39358,2.89402,-0.939199,1.60832,-5,-2.94391,-3.83725,3.08166,1.12986,0.941308,1.27105,-2.96096,1.83783,0.76425,-4.77057,-1.98513,-1.76916,1.97031,-0.362772,0.275993,2.10107,-1.03732,-0.802698,0.0393157,0.172539,1.97706,1.02553,-2.49806,-0.279155,-1.06982,1.44826,1.24982,-0.954085,3.359,-1.97435,-1.2565,0.81645,0.731595,-1.00741,-2.7148,-1.40366,-3.10915,3.52586,1.07691,-1.3761,1.00216,2.25234,0.700378,-2.31925,-5,-0.675279,-1.26789,2.57783,1.12919,0.580206,1.23027,-0.740748,0.0199236,-1.86899,-2.2486,1.19212,3.53086,-1.09149,-2.1349,0.66396,0.424187,0.482133,-0.808438,1.99049,0.742178,-1.31767,0.583124,0.952167,-1.51659,1.48869,-2.46888,0.043571,0.7649,0.489859,0.111977,-1.41293,-0.294674,2.60148,1.79652,-1.14056,0.407143,3.79195,3.72585,0.274476,1.84299,1.62967,2.28676,-1.30581,2.15816,2.48531,-1.24335,0.271839,0.12137,2.88426,-1.83441,-4.03632,-1.53714,-1.2906,2.27703,0.443974,-0.612786,-2.39754,1.74691,-0.435453,0.185507,1.67827,0.0525642,-0.691551,3.16822,-0.611406,-0.541553,1.35087,2.76211,0.992824,-3.68055,-4.2639,1.51709,-2.45231,-3.00141,-3.64033,1.67112,0.0985558,0.619187,3.96573,3.56267,-1.96902,-2.98513,-1.55062,-2.15042,0.771985,-0.943073,-0.480843,-1.65687,2.37475,0.608228,-3.24466,0.849622,-2.86075,-1.46391,1.40645,-1.45888,2.73126,-0.415794,-3.74768,-0.979944,-1.82444,-0.150412,-0.28058,2.08488,-2.37682,1.82122,-0.288259,-2.33682,-3.58526,1.22841,4.31241,1.10654,-1.98009,-1.00463,2.87308,0.208453,2.15898,2.67539,-1.47677,2.17135,-0.637026,-0.63271,1.20419,4.43861,0.747512,-3.54145,1.8825,2.96618,-1.92659,-2.47859,-0.785451,-1.40532,-0.674935,0.0319727,1.87573,-3.01594,4.22557,-3.66208,-0.722836,1.41689,0.0183093,-0.557033,-0.0678463,-1.28082,-1.98987,0.507865,3.75743,-1.73139,0.866001,1.74067,0.696672,4.39086,2.99778,-0.0564025,-0.983488,-3.09085,1.72517,0.868775,-2.40335,0.386055,1.75372,-2.6786,-1.19173,-4.44435,0.304288,0.638885,2.34638,-1.32976,-2.10118,4.65888,1.7782,-1.20158,-4.24301,-4.06991,1.72268,-0.279593,1.30985,-3.17112,4.31968,0.279576,3.69182,1.44109,3.12799,-2.18023,0.243397,-1.43403,2.14824,-1.10137,-1.112,2.13384,1.37734,-0.911001,1.45426,0.997762,0.0423032,-4.75777,-2.41677,-0.999389,1.20012,-1.42017,-0.128527,2.26386,3.40852,-1.33307,-0.204543,1.34373,4.79766,-1.76348,-0.121001,-1.53905,4.36415,-1.14426,2.41639,2.27689,1.00842,-0.138736,0.748702,-0.820608,0.430167,1.54442
